<?xml version="1.0"?>
<opencv_storage>
<stage13>
  <maxWeakCount>6</maxWeakCount>
  <stageThreshold>-9.2481946945190430e-01</stageThreshold>
  <weakClassifiers>
    <_>
      <internalNodes>
        0 -1 139873 5.5696465075016022e-02</internalNodes>
      <leafValues>
        -5.6692916154861450e-01 5.3191488981246948e-01</leafValues></_>
    <_>
      <internalNodes>
        0 -1 28681 -2.4975652340799570e-03</internalNodes>
      <leafValues>
        5.2041840553283691e-01 -3.1536251306533813e-01</leafValues></_>
    <_>
      <internalNodes>
        0 -1 78292 -8.3422800526022911e-03</internalNodes>
      <leafValues>
        -9.3847608566284180e-01 1.5219838917255402e-01</leafValues></_>
    <_>
      <internalNodes>
        0 -1 159717 -1.6776818665675819e-04</internalNodes>
      <leafValues>
        -7.1526181697845459e-01 2.4007235467433929e-01</leafValues></_>
    <_>
      <internalNodes>
        0 -1 161184 -4.7300290316343307e-04</internalNodes>
      <leafValues>
        -9.4350624084472656e-01 1.3686358928680420e-01</leafValues></_>
    <_>
      <internalNodes>
        0 -1 36610 5.0269754137843847e-04</internalNodes>
      <leafValues>
        -3.1676858663558960e-01 6.6975635290145874e-01</leafValues></_></weakClassifiers></stage13>
</opencv_storage>
