<?xml version="1.0"?>
<opencv_storage>
<stage15>
  <maxWeakCount>6</maxWeakCount>
  <stageThreshold>-1.0846346616744995e+00</stageThreshold>
  <weakClassifiers>
    <_>
      <internalNodes>
        0 -1 115303 -5.7054240256547928e-02</internalNodes>
      <leafValues>
        6.0975611209869385e-01 -5.5384618043899536e-01</leafValues></_>
    <_>
      <internalNodes>
        0 -1 114966 -1.7237806692719460e-02</internalNodes>
      <leafValues>
        3.8069772720336914e-01 -3.8690957427024841e-01</leafValues></_>
    <_>
      <internalNodes>
        0 -1 134302 5.2108836825937033e-04</internalNodes>
      <leafValues>
        -5.8159518241882324e-01 3.1081712245941162e-01</leafValues></_>
    <_>
      <internalNodes>
        0 -1 3211 1.5991653781384230e-03</internalNodes>
      <leafValues>
        2.2480860352516174e-01 -9.0262752771377563e-01</leafValues></_>
    <_>
      <internalNodes>
        0 -1 49815 2.2006332874298096e-02</internalNodes>
      <leafValues>
        -2.3890407383441925e-01 6.5485250949859619e-01</leafValues></_>
    <_>
      <internalNodes>
        0 -1 64938 3.3340722438879311e-05</internalNodes>
      <leafValues>
        -3.6194351315498352e-01 4.5181170105934143e-01</leafValues></_></weakClassifiers></stage15>
</opencv_storage>
