<?xml version="1.0"?>
<opencv_storage>
<stage16>
  <maxWeakCount>6</maxWeakCount>
  <stageThreshold>-9.0060925483703613e-01</stageThreshold>
  <weakClassifiers>
    <_>
      <internalNodes>
        0 -1 13311 3.2862366642802954e-03</internalNodes>
      <leafValues>
        -5.5731225013732910e-01 4.5833334326744080e-01</leafValues></_>
    <_>
      <internalNodes>
        0 -1 89904 1.5827496536076069e-03</internalNodes>
      <leafValues>
        1.1576860398054123e-01 -7.9712349176406860e-01</leafValues></_>
    <_>
      <internalNodes>
        0 -1 75094 -3.8305766793200746e-05</internalNodes>
      <leafValues>
        4.0680155158042908e-01 -3.3215692639350891e-01</leafValues></_>
    <_>
      <internalNodes>
        0 -1 96046 -2.2328620616463013e-05</internalNodes>
      <leafValues>
        3.7916725873947144e-01 -4.0485250949859619e-01</leafValues></_>
    <_>
      <internalNodes>
        0 -1 111084 5.2839308045804501e-03</internalNodes>
      <leafValues>
        1.2614513933658600e-01 -9.0317302942276001e-01</leafValues></_>
    <_>
      <internalNodes>
        0 -1 138806 -7.7942817006260157e-04</internalNodes>
      <leafValues>
        4.5103728771209717e-01 -3.4186139702796936e-01</leafValues></_></weakClassifiers></stage16>
</opencv_storage>
