<?xml version="1.0"?>
<opencv_storage>
<stage6>
  <maxWeakCount>5</maxWeakCount>
  <stageThreshold>-8.9957231283187866e-01</stageThreshold>
  <weakClassifiers>
    <_>
      <internalNodes>
        0 -1 27132 5.9042207896709442e-02</internalNodes>
      <leafValues>
        -6.0156250000000000e-01 7.7777779102325439e-01</leafValues></_>
    <_>
      <internalNodes>
        0 -1 99203 -1.6976192593574524e-01</internalNodes>
      <leafValues>
        -7.3321133852005005e-01 3.1802216172218323e-01</leafValues></_>
    <_>
      <internalNodes>
        0 -1 1110 -2.1822070993948728e-04</internalNodes>
      <leafValues>
        -6.6547292470932007e-01 3.0243653059005737e-01</leafValues></_>
    <_>
      <internalNodes>
        0 -1 151866 1.8731114323600195e-05</internalNodes>
      <leafValues>
        -5.0558477640151978e-01 4.5422476530075073e-01</leafValues></_>
    <_>
      <internalNodes>
        0 -1 24908 2.9947493225336075e-02</internalNodes>
      <leafValues>
        -3.2145980000495911e-01 6.5962380170822144e-01</leafValues></_></weakClassifiers></stage6>
</opencv_storage>
