<?xml version="1.0"?>
<opencv_storage>
<stage5>
  <maxWeakCount>6</maxWeakCount>
  <stageThreshold>-7.1440106630325317e-01</stageThreshold>
  <weakClassifiers>
    <_>
      <internalNodes>
        0 -1 158346 1.4996523037552834e-02</internalNodes>
      <leafValues>
        -6.7857140302658081e-01 4.2857143282890320e-01</leafValues></_>
    <_>
      <internalNodes>
        0 -1 13219 -1.6386229544878006e-02</internalNodes>
      <leafValues>
        5.3772634267807007e-01 -4.1432812809944153e-01</leafValues></_>
    <_>
      <internalNodes>
        0 -1 13297 -1.7094792565330863e-04</internalNodes>
      <leafValues>
        -7.3811936378479004e-01 2.7173370122909546e-01</leafValues></_>
    <_>
      <internalNodes>
        0 -1 88362 5.4851581808179617e-04</internalNodes>
      <leafValues>
        2.7586829662322998e-01 -6.8562269210815430e-01</leafValues></_>
    <_>
      <internalNodes>
        0 -1 22331 2.2289901971817017e-03</internalNodes>
      <leafValues>
        -4.6253961324691772e-01 3.5590881109237671e-01</leafValues></_>
    <_>
      <internalNodes>
        0 -1 151061 -2.4882374418666586e-05</internalNodes>
      <leafValues>
        4.3647873401641846e-01 -4.2942258715629578e-01</leafValues></_></weakClassifiers></stage5>
</opencv_storage>
