<?xml version="1.0"?>
<opencv_storage>
<stage13>
  <maxWeakCount>5</maxWeakCount>
  <stageThreshold>-6.7811810970306396e-01</stageThreshold>
  <weakClassifiers>
    <_>
      <internalNodes>
        0 -1 80549 -1.1919727548956871e-02</internalNodes>
      <leafValues>
        6.9696968793869019e-01 -4.0186914801597595e-01</leafValues></_>
    <_>
      <internalNodes>
        0 -1 157609 1.5760125825181603e-04</internalNodes>
      <leafValues>
        2.8002542257308960e-01 -7.7445554733276367e-01</leafValues></_>
    <_>
      <internalNodes>
        0 -1 57204 3.3438764512538910e-04</internalNodes>
      <leafValues>
        -3.5157260298728943e-01 5.8255034685134888e-01</leafValues></_>
    <_>
      <internalNodes>
        0 -1 117675 1.4460991951636970e-04</internalNodes>
      <leafValues>
        -4.3652966618537903e-01 4.7599884867668152e-01</leafValues></_>
    <_>
      <internalNodes>
        0 -1 162086 -2.5331240613013506e-04</internalNodes>
      <leafValues>
        -8.6701095104217529e-01 2.8089174628257751e-01</leafValues></_></weakClassifiers></stage13>
</opencv_storage>
